FANN_FLO_2.1
num_layers=3
learning_rate=0.700000
connection_rate=1.000000
network_type=0
learning_momentum=0.000000
training_algorithm=2
train_error_function=1
train_stop_function=0
cascade_output_change_fraction=0.010000
quickprop_decay=-0.000100
quickprop_mu=1.750000
rprop_increase_factor=1.200000
rprop_decrease_factor=0.500000
rprop_delta_min=0.000000
rprop_delta_max=50.000000
rprop_delta_zero=0.100000
cascade_output_stagnation_epochs=12
cascade_candidate_change_fraction=0.010000
cascade_candidate_stagnation_epochs=12
cascade_max_out_epochs=150
cascade_min_out_epochs=50
cascade_max_cand_epochs=150
cascade_min_cand_epochs=50
cascade_num_candidate_groups=2
bit_fail_limit=3.49999999999999980000e-001
cascade_candidate_limit=1.00000000000000000000e+003
cascade_weight_multiplier=4.00000000000000020000e-001
cascade_activation_functions_count=10
cascade_activation_functions=3 5 7 8 10 11 14 15 16 17 
cascade_activation_steepnesses_count=4
cascade_activation_steepnesses=2.50000000000000000000e-001 5.00000000000000000000e-001 7.50000000000000000000e-001 1.00000000000000000000e+000 
layer_sizes=97 11 5 
scale_included=0
neurons (num_inputs, activation_function, activation_steepness)=(0, 0, 0.00000000000000000000e+000) (0, 0, 0.00000000000000000000e+000) (0, 0, 0.00000000000000000000e+000) (0, 0, 0.00000000000000000000e+000) (0, 0, 0.00000000000000000000e+000) (0, 0, 0.00000000000000000000e+000) (0, 0, 0.00000000000000000000e+000) (0, 0, 0.00000000000000000000e+000) (0, 0, 0.00000000000000000000e+000) (0, 0, 0.00000000000000000000e+000) (0, 0, 0.00000000000000000000e+000) (0, 0, 0.00000000000000000000e+000) (0, 0, 0.00000000000000000000e+000) (0, 0, 0.00000000000000000000e+000) (0, 0, 0.00000000000000000000e+000) (0, 0, 0.00000000000000000000e+000) (0, 0, 0.00000000000000000000e+000) (0, 0, 0.00000000000000000000e+000) (0, 0, 0.00000000000000000000e+000) (0, 0, 0.00000000000000000000e+000) (0, 0, 0.00000000000000000000e+000) (0, 0, 0.00000000000000000000e+000) (0, 0, 0.00000000000000000000e+000) (0, 0, 0.00000000000000000000e+000) (0, 0, 0.00000000000000000000e+000) (0, 0, 0.00000000000000000000e+000) (0, 0, 0.00000000000000000000e+000) (0, 0, 0.00000000000000000000e+000) (0, 0, 0.00000000000000000000e+000) (0, 0, 0.00000000000000000000e+000) (0, 0, 0.00000000000000000000e+000) (0, 0, 0.00000000000000000000e+000) (0, 0, 0.00000000000000000000e+000) (0, 0, 0.00000000000000000000e+000) (0, 0, 0.00000000000000000000e+000) (0, 0, 0.00000000000000000000e+000) (0, 0, 0.00000000000000000000e+000) (0, 0, 0.00000000000000000000e+000) (0, 0, 0.00000000000000000000e+000) (0, 0, 0.00000000000000000000e+000) (0, 0, 0.00000000000000000000e+000) (0, 0, 0.00000000000000000000e+000) (0, 0, 0.00000000000000000000e+000) (0, 0, 0.00000000000000000000e+000) (0, 0, 0.00000000000000000000e+000) (0, 0, 0.00000000000000000000e+000) (0, 0, 0.00000000000000000000e+000) (0, 0, 0.00000000000000000000e+000) (0, 0, 0.00000000000000000000e+000) (0, 0, 0.00000000000000000000e+000) (0, 0, 0.00000000000000000000e+000) (0, 0, 0.00000000000000000000e+000) (0, 0, 0.00000000000000000000e+000) (0, 0, 0.00000000000000000000e+000) (0, 0, 0.00000000000000000000e+000) (0, 0, 0.00000000000000000000e+000) (0, 0, 0.00000000000000000000e+000) (0, 0, 0.00000000000000000000e+000) (0, 0, 0.00000000000000000000e+000) (0, 0, 0.00000000000000000000e+000) (0, 0, 0.00000000000000000000e+000) (0, 0, 0.00000000000000000000e+000) (0, 0, 0.00000000000000000000e+000) (0, 0, 0.00000000000000000000e+000) (0, 0, 0.00000000000000000000e+000) (0, 0, 0.00000000000000000000e+000) (0, 0, 0.00000000000000000000e+000) (0, 0, 0.00000000000000000000e+000) (0, 0, 0.00000000000000000000e+000) (0, 0, 0.00000000000000000000e+000) (0, 0, 0.00000000000000000000e+000) (0, 0, 0.00000000000000000000e+000) (0, 0, 0.00000000000000000000e+000) (0, 0, 0.00000000000000000000e+000) (0, 0, 0.00000000000000000000e+000) (0, 0, 0.00000000000000000000e+000) (0, 0, 0.00000000000000000000e+000) (0, 0, 0.00000000000000000000e+000) (0, 0, 0.00000000000000000000e+000) (0, 0, 0.00000000000000000000e+000) (0, 0, 0.00000000000000000000e+000) (0, 0, 0.00000000000000000000e+000) (0, 0, 0.00000000000000000000e+000) (0, 0, 0.00000000000000000000e+000) (0, 0, 0.00000000000000000000e+000) (0, 0, 0.00000000000000000000e+000) (0, 0, 0.00000000000000000000e+000) (0, 0, 0.00000000000000000000e+000) (0, 0, 0.00000000000000000000e+000) (0, 0, 0.00000000000000000000e+000) (0, 0, 0.00000000000000000000e+000) (0, 0, 0.00000000000000000000e+000) (0, 0, 0.00000000000000000000e+000) (0, 0, 0.00000000000000000000e+000) (0, 0, 0.00000000000000000000e+000) (0, 0, 0.00000000000000000000e+000) (0, 0, 0.00000000000000000000e+000) (97, 5, 5.00000000000000000000e-001) (97, 5, 5.00000000000000000000e-001) (97, 5, 5.00000000000000000000e-001) (97, 5, 5.00000000000000000000e-001) (97, 5, 5.00000000000000000000e-001) (97, 5, 5.00000000000000000000e-001) (97, 5, 5.00000000000000000000e-001) (97, 5, 5.00000000000000000000e-001) (97, 5, 5.00000000000000000000e-001) (97, 5, 5.00000000000000000000e-001) (0, 5, 0.00000000000000000000e+000) (11, 5, 5.00000000000000000000e-001) (11, 5, 5.00000000000000000000e-001) (11, 5, 5.00000000000000000000e-001) (11, 5, 5.00000000000000000000e-001) (0, 5, 0.00000000000000000000e+000) 
connections (connected_to_neuron, weight)=(0, 3.73769525434594960000e+000) (1, 2.93665710598479230000e+000) (2, 2.00483043186103380000e+001) (3, 2.23580837231204580000e+001) (4, 1.63138420821085470000e+001) (5, 1.62957024366512190000e+001) (6, 9.95041381807031830000e+000) (7, 3.75953363623244560000e+000) (8, 1.62744526436502520000e+000) (9, 3.88490148593766880000e+001) (10, 1.30551522400044500000e+001) (11, 1.29932417806505270000e+001) (12, 6.36658345648808230000e+000) (13, 4.35526592855816560000e+000) (14, 9.88916649703793920000e+000) (15, 1.66642230620553830000e+000) (16, 1.49568007217588830000e+001) (17, 8.06617924957425810000e+000) (18, 1.63988423218898990000e+000) (19, 2.31926932655536180000e+001) (20, 1.47834247222122750000e+000) (21, 6.39512959608609680000e+000) (22, 9.83618798513838400000e+000) (23, 3.84002244499841970000e+000) (24, 3.89382493895819740000e+000) (25, 6.30181473781727150000e+000) (26, 1.64463275542429810000e+000) (27, 2.32333609931435700000e+001) (28, 1.53924945613322930000e+000) (29, 9.09783979536774010000e+000) (30, 1.00579517290603120000e+001) (31, 2.79312164600526770000e+000) (32, 4.99600130642763320000e+000) (33, 6.26510819335826060000e+000) (34, 6.07642830048276040000e+000) (35, 1.31363203946764010000e+001) (36, 1.47169574966606560000e+000) (37, -6.45394168689127220000e+000) (38, 6.74332730826136030000e+000) (39, 3.91410692063506050000e+000) (40, 4.97352816115124960000e+000) (41, 1.42955945082255410000e+001) (42, 1.03989313181553800000e+001) (43, 1.58947340611298710000e+001) (44, 6.07372573637818030000e+000) (45, 1.53249085066907340000e+001) (46, 1.04783219382583490000e+001) (47, 3.85113085088651590000e+000) (48, 3.25167466254747990000e+000) (49, 1.04916337117968550000e+001) (50, 2.64135387190822790000e+000) (51, 1.29000189749611600000e+001) (52, 6.56275568640457680000e+000) (53, 7.40346162545640230000e+000) (54, 1.03146600809015860000e+001) (55, 5.13298860888046350000e+000) (56, 8.17611282757800060000e+000) (57, 3.66694840731132030000e+000) (58, 1.51739276817022790000e+000) (59, 1.27586273956960220000e+001) (60, -3.68675020487451200000e+000) (61, 6.31069966146491450000e+000) (62, 8.66666168057825460000e+000) (63, 7.55018154960673460000e+000) (64, 7.61903004150297300000e+000) (65, 8.32482407361716880000e+000) (66, 6.30667134115239760000e+000) (67, 2.15780145538419850000e+001) (68, 6.37871113905476680000e+000) (69, 6.28461323791875430000e+000) (70, 1.19186411193348930000e+001) (71, 1.40704976479538870000e+001) (72, 1.07330557062281740000e+000) (73, 3.12823105530657000000e+000) (74, -1.00041027958317260000e+000) (75, 1.27060639146632240000e+001) (76, 1.49241108318743350000e+000) (77, 6.43313618490287450000e+000) (78, 1.21266046812838720000e+001) (79, 4.82470062598890510000e+000) (80, 3.61983849814614580000e+000) (81, 2.60335195955376180000e+000) (82, 3.99276011027662440000e+000) (83, 1.28215729553167640000e+001) (84, 1.55307391902383100000e+000) (85, 1.18938303245940130000e+001) (86, 4.79625825062681880000e+000) (87, 7.00290091005788320000e-001) (88, 1.17522291690204130000e+001) (89, 1.82459195361855540000e+001) (90, 2.23519618939683230000e+001) (91, 2.01139998494379880000e+001) (92, 2.01324507652515270000e+001) (93, 2.30770113360279580000e+001) (94, 1.74739300603760410000e+001) (95, 1.48263934871134920000e+000) (96, 2.69649916723353340000e+001) (0, 1.08957173608569210000e+001) (1, 1.32244802988453480000e+001) (2, 2.43398615687924860000e+001) (3, 2.41227750728950740000e+001) (4, 2.09297703851020100000e+001) (5, 2.08843236092481130000e+001) (6, 2.02080032644802080000e+001) (7, 1.08166463159354630000e+001) (8, -2.89118512022091990000e-001) (9, 1.54393768774893750000e+001) (10, 1.05640951918180480000e+001) (11, 7.78128863278501370000e+000) (12, 4.48137687320655780000e+000) (13, 3.23767035542552420000e+000) (14, 1.32615208369972070000e+001) (15, -3.53565527545788410000e-001) (16, 1.09447564454798380000e+001) (17, 1.73980423742931740000e+000) (18, -3.68952488946255490000e-001) (19, 1.29844462834023990000e+001) (20, -3.07819677936611190000e-001) (21, 4.62696402694000590000e+000) (22, 1.31145176631693070000e+001) (23, 1.13142552497667250000e+000) (24, 9.71202130344010040000e-001) (25, 3.80105158493092520000e+000) (26, -4.19263771223222670000e-001) (27, 1.30619365162871330000e+001) (28, -4.62934425519956620000e-001) (29, 1.39792109793644720000e+001) (30, 1.38760322735937440000e+001) (31, -3.02832447635176920000e+000) (32, 2.75480938242987070000e+000) (33, 3.82309137836273210000e+000) (34, -1.86493176494158170000e-003) (35, 7.71174517798881980000e+000) (36, -3.63038188266100180000e-001) (37, 4.56904159122200500000e+000) (38, -6.18331482579156240000e+000) (39, 1.11740573766510450000e+000) (40, 2.73443584429337960000e+000) (41, 1.35941636014997390000e+001) (42, 8.91599903816903170000e+000) (43, 1.38713368952593630000e+001) (44, 1.18683837358062250000e+001) (45, 1.99741000955450400000e+001) (46, 9.66329680289604380000e+000) (47, 9.76335185494438870000e-001) (48, 1.00904807772068980000e+000) (49, 9.59958220179690080000e+000) (50, -2.11808118622054750000e+000) (51, 8.73008740026853220000e+000) (52, 8.66451814304864420000e+000) (53, -1.06162974821246810000e+001) (54, 8.89602222854823130000e+000) (55, 2.81476421939445000000e+000) (56, 3.98299301072386580000e+000) (57, -2.35414822180481530000e+000) (58, -4.60938578890819240000e-001) (59, 1.70296564117416300000e+001) (60, 8.82631883451557190000e+000) (61, 4.49354728112766290000e+000) (62, 7.60423346420905680000e+000) (63, 5.14284037533949870000e+000) (64, 2.99141438004408930000e+000) (65, 8.13476879884240490000e+000) (66, 4.58891471649404180000e+000) (67, 2.39548537889074320000e+001) (68, 4.50875114078480980000e+000) (69, 4.51130851159651410000e+000) (70, 1.56553132160637640000e+001) (71, 1.03513451794925540000e+001) (72, -6.13667264459285100000e+000) (73, 1.04483909483576180000e+000) (74, -2.61669553432024450000e+000) (75, 1.70200922020121650000e+001) (76, -4.17341163801362160000e-001) (77, 4.61421378875978580000e+000) (78, 8.25408277093733570000e+000) (79, 2.15593052994423970000e+000) (80, 3.41504406007998810000e+000) (81, 7.90646287433664070000e+000) (82, 9.16149160788716980000e+000) (83, 1.70974420622339030000e+001) (84, -4.16791847395116770000e-001) (85, 1.56212311833237990000e+001) (86, 2.03972569446959540000e+000) (87, -5.15405585633867340000e+000) (88, 8.06957682309600340000e+000) (89, 2.26133157660612770000e+001) (90, 2.41204008038268260000e+001) (91, 2.05365080658205730000e+001) (92, 2.05935393135858360000e+001) (93, 3.86502473898048110000e+001) (94, 1.53854885701325690000e+001) (95, -4.08631449984766080000e-001) (96, 2.91954102090264630000e+001) (0, 6.94192419324969730000e+000) (1, 1.11959658163805020000e+001) (2, 2.39159379657978340000e+001) (3, 2.43308260203412100000e+001) (4, 1.78803623056145970000e+001) (5, 1.78374484850198980000e+001) (6, -6.62868206201525110000e+000) (7, 7.01443395887492740000e+000) (8, 2.10917897350543490000e+000) (9, 1.71156397608215480000e+001) (10, 1.28030875002427940000e+001) (11, 1.28449486031404150000e+001) (12, 4.66722769644862990000e+000) (13, -8.44221444923786630000e+001) (14, 1.02966317116652420000e+001) (15, 2.12759327716583080000e+000) (16, 1.32468450121707240000e+002) (17, 1.28776454073881830000e+001) (18, 2.04715504325383210000e+000) (19, 1.33096069441610720000e+001) (20, 2.14387135035748290000e+000) (21, 4.72792716679020670000e+000) (22, 1.02264107569491290000e+001) (23, 4.01487156426377560000e+000) (24, 4.00237767075941870000e+000) (25, 5.49373375293385720000e+000) (26, 2.00398487798321770000e+000) (27, 1.34480102704338660000e+001) (28, 2.03085865653507680000e+000) (29, 1.09692643858303960000e+001) (30, 1.09667816329313720000e+001) (31, 5.97060744138294290000e+000) (32, 5.95553958267768110000e+000) (33, 5.52166954096939390000e+000) (34, 3.22335484941687780000e+000) (35, 1.27950157395773090000e+001) (36, 2.07241749591582370000e+000) (37, 7.23744206011739610000e+000) (38, -2.60468111091872780000e+000) (39, 3.89673191731601730000e+000) (40, 6.00071780980450150000e+000) (41, 1.60250840280657340000e+001) (42, 8.02936846468458220000e+000) (43, 1.42234879711115520000e+001) (44, 1.26391143331987440000e+001) (45, 1.61751312244213420000e+001) (46, 1.49181776636637320000e+001) (47, 4.04978978311514300000e+000) (48, 1.23287824306683770000e+000) (49, 1.48469435342948550000e+001) (50, 4.24530664507474760000e+000) (51, 2.21392160016613180000e+001) (52, 1.19207115995921670000e+001) (53, -2.51839019044824040000e+001) (54, 8.05378862921001650000e+000) (55, 6.04100101292970320000e+000) (56, 4.62270563746191780000e+000) (57, 2.25835442248886720000e+000) (58, 2.06897511161320940000e+000) (59, 1.89923228275548470000e+001) (60, 7.01103726442216320000e+000) (61, 4.60349478554713980000e+000) (62, 7.09542932329246060000e+000) (63, 1.27194806532765060000e+001) (64, -3.57563165530174180000e+000) (65, 6.78547275977509210000e+000) (66, 4.70715079066186530000e+000) (67, 2.05819862911964470000e+001) (68, 4.63671011832354020000e+000) (69, 4.57807974871969490000e+000) (70, 1.91477968945748670000e+001) (71, 1.22300264133689360000e+001) (72, 3.73412602518509880000e-001) (73, 1.13008283589073890000e+000) (74, 7.24935170298039780000e-001) (75, 1.91361277577059850000e+001) (76, 2.09191822833770270000e+000) (77, 4.74731192347462020000e+000) (78, 9.85161603660452910000e+000) (79, 3.83566633070409190000e+000) (80, 3.07493874304263270000e+000) (81, 2.92594500156913150000e+000) (82, 9.56906074482835580000e+000) (83, 1.91310679492133280000e+001) (84, 2.05917286700957590000e+000) (85, 1.91177004605177740000e+001) (86, 3.92253767157494290000e+000) (87, 6.90145756441929990000e-001) (88, 1.07768173855231740000e+001) (89, 2.04497980161218640000e+001) (90, 2.42977571846057390000e+001) (91, 1.92783992060586190000e+001) (92, 1.93013362170324820000e+001) (93, 6.23183748686906400000e+001) (94, 1.24484650567321180000e+001) (95, 2.09927296466582810000e+000) (96, 2.70774664761005180000e+001) (0, 6.06598106310265010000e+000) (1, 1.16805657869736720000e+001) (2, 2.02217791814897400000e+001) (3, 2.44976426658950960000e+001) (4, 1.95341925321546410000e+001) (5, 1.95242193861331540000e+001) (6, -3.51167502947565570000e+001) (7, 6.09137779385350160000e+000) (8, 2.48106852986826840000e+000) (9, 1.32065872825904420000e+001) (10, 1.82096626588869730000e+001) (11, 9.89462463910999010000e+000) (12, 5.10544961278493230000e+000) (13, 6.25489180278922630000e+001) (14, 3.17924961683195700000e+001) (15, 2.50435344197764340000e+000) (16, 1.19797354499506530000e+001) (17, 7.90617290443316190000e+000) (18, 2.60233318128600160000e+000) (19, 1.28521302504071300000e+001) (20, 2.50965739854588540000e+000) (21, 5.06796182279626260000e+000) (22, 3.17224033933919540000e+001) (23, 6.11750170353272080000e+000) (24, 6.11930224064210470000e+000) (25, 4.17088556128363490000e+000) (26, 2.59442301907553660000e+000) (27, 1.28959290844925290000e+001) (28, 2.63133708455576930000e+000) (29, 8.37469281701353200000e+000) (30, 3.75922778799798960000e+001) (31, 1.69185992741728800000e+001) (32, 1.16870777399532950000e+001) (33, 4.20768365102640640000e+000) (34, 4.14752460734972760000e+000) (35, 9.99752380679640500000e+000) (36, 2.49496013366593950000e+000) (37, 1.17180927123630520000e+001) (38, 1.90783149342455010000e+001) (39, 6.01847216251673790000e+000) (40, 1.16232837901708040000e+001) (41, 1.38053648454450780000e+001) (42, 9.15122055567496770000e+000) (43, 1.48242851620750060000e+001) (44, 1.24143743486006120000e+001) (45, -3.27655649753997750000e+000) (46, 1.37746630535147880000e+001) (47, 6.10486742618894950000e+000) (48, 6.99494435534422630000e+000) (49, 1.36708849818135330000e+001) (50, 2.97002954949931390000e+001) (51, 1.17605685956730940000e+001) (52, 1.44246530969483030000e+001) (53, 8.45743341947777200000e+001) (54, 9.33753037757793970000e+000) (55, 1.16676197217100930000e+001) (56, 1.58531229973895090000e+001) (57, 2.38357505847194380000e+001) (58, 2.56397868760838410000e+000) (59, 1.38838875142907570000e+001) (60, 7.89972067958325490000e+000) (61, 4.95565713529576880000e+000) (62, 5.37846447017690910000e+000) (63, 9.13931523862242480000e+000) (64, 8.95485537415046020000e+000) (65, 9.80550038586058110000e+000) (66, 5.09497598891306500000e+000) (67, 1.98661914967995270000e+001) (68, 4.94005655084830850000e+000) (69, 5.07627480809731240000e+000) (70, 8.83468492448642630000e+000) (71, 1.21242912612923470000e+001) (72, 3.08925627738074930000e+000) (73, 7.08447682753767350000e+000) (74, 8.36812320688527760000e+000) (75, 1.38766182212209300000e+001) (76, 2.63110514798178710000e+000) (77, 4.98184732307796810000e+000) (78, 6.37343147027647210000e+000) (79, 8.23369615281728780000e+000) (80, 2.82933958447957010000e+000) (81, 4.39368029995685700000e+001) (82, 1.05945498005497550000e+001) (83, 1.38445625526881390000e+001) (84, 2.48385173522844170000e+000) (85, 8.69062975168571760000e+000) (86, 8.21727769578617280000e+000) (87, 1.78004723523195380000e+001) (88, 5.64704773662131100000e+001) (89, 1.80078670845277880000e+001) (90, 2.46283555550307900000e+001) (91, 2.11432839835969160000e+001) (92, 2.12301125953887070000e+001) (93, 2.05877756551279670000e+001) (94, 2.23151555670654530000e+001) (95, 2.60500652410998380000e+000) (96, 2.71269769437571360000e+001) (0, 9.23096725250446500000e+000) (1, 2.48409915554496910000e+001) (2, 2.18356115615255850000e+001) (3, 2.46031405620677540000e+001) (4, 2.13665266452250970000e+001) (5, 2.13563642917094580000e+001) (6, 2.25693774946622270000e+001) (7, 9.30668136383237150000e+000) (8, 7.26751058116049680000e-001) (9, 1.37511329429326250000e+001) (10, 1.07572855976278670000e+001) (11, 7.56173057690100150000e+000) (12, 3.85846585616050670000e+000) (13, 9.52200212238559370000e+000) (14, 1.42094955485485560000e+001) (15, 7.80986896469478610000e-001) (16, 9.75071422624034940000e+000) (17, -4.30382435433846580000e+000) (18, 6.85442461386056250000e-001) (19, 9.95833120895139250000e+000) (20, 7.07091635778178680000e-001) (21, 3.97011136099287090000e+000) (22, 1.42100692805074220000e+001) (23, 2.69149628702173200000e+000) (24, 2.76632539603480070000e+000) (25, 5.07623189607108130000e+000) (26, 7.60228841319018690000e-001) (27, 9.89592275423533250000e+000) (28, 7.68590657725255260000e-001) (29, 1.04906885071017570000e+001) (30, 1.63857609907898120000e+001) (31, 1.27636916452941020000e+000) (32, 6.08538204940746930000e+000) (33, 5.11907858320943190000e+000) (34, -7.80570439676085080000e-001) (35, 7.54428673371508030000e+000) (36, 8.43950769617239140000e-001) (37, 7.88297704941740210000e+000) (38, 6.15170789135243900000e+000) (39, 2.77297822806602270000e+000) (40, 6.03189083697966750000e+000) (41, 1.36048956178276460000e+001) (42, 1.08069638676336340000e+001) (43, 1.34636161985275910000e+001) (44, 1.61719690701366970000e+001) (45, 1.36617947833931340000e+001) (46, 9.55183530410294780000e+000) (47, 2.80765840086708530000e+000) (48, 3.75785308902631910000e+000) (49, 9.67137875964364110000e+000) (50, 1.90310286321847030000e+000) (51, 8.08183531912042950000e+000) (52, 1.14385719335895540000e+001) (53, 5.90752291612926150000e+000) (54, 1.07361386708314460000e+001) (55, 6.05816036971984500000e+000) (56, 6.24365546635052750000e+000) (57, 3.69376386241790300000e+000) (58, 8.23510086848451510000e-001) (59, 1.80156117694675400000e+001) (60, 2.03334846087316490000e+001) (61, 3.88501004710377360000e+000) (62, 6.77614655542950040000e+000) (63, 6.87350953724379110000e+000) (64, 5.09587596988769590000e+000) (65, 6.81737403871316780000e+000) (66, 3.81701077356510240000e+000) (67, 2.36533663442280610000e+001) (68, 3.95229520484394040000e+000) (69, 3.80446195438079250000e+000) (70, 1.02501148326667550000e+001) (71, 8.48401189713198710000e+000) (72, -7.32871809821488250000e-001) (73, 3.74258819048773940000e+000) (74, 3.46142001939317860000e+000) (75, 1.80284291522801330000e+001) (76, 7.44213214829027580000e-001) (77, 3.85495633467612950000e+000) (78, -9.59852227023842450000e+000) (79, 4.53982773128223460000e+000) (80, 4.77065002342462650000e+000) (81, 4.61133307237389280000e+000) (82, 1.19413656112523160000e+001) (83, 1.81760121600936380000e+001) (84, 7.05901450231302690000e-001) (85, 1.02190540327106200000e+001) (86, 4.52475814971396150000e+000) (87, -3.69125638915974220000e-001) (88, 1.10240716196826640000e+001) (89, 1.89692260030123560000e+001) (90, 2.45974337749583680000e+001) (91, 1.83929802014403980000e+001) (92, 1.83328361569811660000e+001) (93, 1.97749336183530890000e+001) (94, 1.11583628327270770000e+001) (95, 7.35717120333992390000e-001) (96, 2.77255381495975540000e+001) (0, 8.31369797914321220000e+000) (1, 1.35854325184851470000e+001) (2, 2.16628385487792200000e+001) (3, 2.57589258459189270000e+001) (4, 1.86614052780172410000e+001) (5, 1.87129738904739610000e+001) (6, 1.44214655078483370000e+001) (7, 8.23229539423303440000e+000) (8, 2.73290176199538990000e-001) (9, 1.03221817872349830000e+001) (10, 1.45801852706025270000e+001) (11, 9.96850338822716790000e+000) (12, 2.67570946448470440000e+000) (13, 7.41012884566770860000e+000) (14, 1.51283669312080630000e+001) (15, 2.21684959041203310000e-001) (16, 1.11474754595435210000e+001) (17, -3.17192824749283050000e+000) (18, 2.35784072684319080000e-001) (19, 1.29454104450501860000e+001) (20, 2.33068008231205460000e-001) (21, 2.68739769318129530000e+000) (22, 1.49976662535750960000e+001) (23, 1.09405747666852980000e+000) (24, 1.00171128153677660000e+000) (25, 3.10402518597036890000e+000) (26, 1.02678608406154980000e-001) (27, 1.29048403796711640000e+001) (28, 2.93968890116777850000e-001) (29, 1.13096999903774620000e+001) (30, 1.33080373832994280000e+001) (31, -1.31222580055657120000e+000) (32, 5.07325759572457180000e+000) (33, 3.00031425145067980000e+000) (34, 8.68124018866306300000e-001) (35, 1.00471349830039140000e+001) (36, 1.74260642635814620000e-001) (37, 7.67687670969175340000e+000) (38, 2.02721437273548810000e+000) (39, 9.58638771026044000000e-001) (40, 5.13062453312368220000e+000) (41, 1.10251676310775920000e+001) (42, 8.03099396652550190000e+000) (43, 1.68445627329914840000e+001) (44, 1.35284165042670550000e+001) (45, 1.57829962726096190000e+001) (46, 7.90128948067602010000e+000) (47, 9.73458109943751150000e-001) (48, 4.03115623495018840000e+000) (49, 8.04975139622857940000e+000) (50, -6.60978679216538740000e-001) (51, 9.12356586952180670000e+000) (52, 8.41901452975588430000e+000) (53, 4.12279370939579690000e+000) (54, 7.90142243928285560000e+000) (55, 4.98883986515451650000e+000) (56, 6.73532680602734240000e+000) (57, 2.30277100842626890000e+000) (58, 1.44347310323168750000e-001) (59, 1.93142421738842420000e+001) (60, 9.60292214501219550000e+000) (61, 2.81873924368065950000e+000) (62, 3.36337998513823910000e+000) (63, 5.89552619448476370000e+000) (64, 4.17664329417908320000e+000) (65, 6.77072831448740510000e+000) (66, 2.66658470862532320000e+000) (67, 2.31288723111031410000e+001) (68, 2.75996239566242040000e+000) (69, 2.77772972815668420000e+000) (70, 5.57208987094583370000e+000) (71, 8.93209675407829810000e+000) (72, -2.81345133332580490000e+000) (73, 4.05727928182534910000e+000) (74, 8.73294570561766180000e-001) (75, 1.93965725050910330000e+001) (76, 1.11473772931755200000e-001) (77, 2.65815574758674570000e+000) (78, 9.69559122510554980000e-001) (79, 4.86815975068863340000e+000) (80, 4.16042861922647140000e+000) (81, 1.35251972222719430000e+001) (82, 1.24563693174736300000e+001) (83, 1.94377834396109890000e+001) (84, 2.14696433650697770000e-001) (85, 5.55983400859059170000e+000) (86, 4.89123714177672130000e+000) (87, -1.91514233211196340000e+000) (88, 1.15949207368260920000e+001) (89, 1.66369047273051400000e+001) (90, 2.58571253140253820000e+001) (91, 1.74438081503498060000e+001) (92, 1.73543794349413500000e+001) (93, 2.00308688334734020000e+001) (94, 1.41309833202474680000e+001) (95, 2.47765276836329570000e-001) (96, 2.82000478679320390000e+001) (0, 1.08556295780351700000e+001) (1, 1.30247917783286290000e+001) (2, 2.09503758837581740000e+001) (3, 2.46978113030973670000e+001) (4, 2.04105969701009540000e+001) (5, 2.02683423269575800000e+001) (6, -1.79731662836706560000e+002) (7, 1.08525167850664740000e+001) (8, 1.70792206220856160000e+000) (9, 1.05447922343559540000e+001) (10, 1.44219665041885640000e+001) (11, 8.72499493963338150000e+000) (12, 4.83282618747061930000e+000) (13, 5.76984693881143260000e+001) (14, 1.30389722552360130000e+002) (15, 1.71741913848159490000e+000) (16, 1.06045416970002900000e+001) (17, -5.14410853079724290000e+001) (18, 1.76589325659529340000e+000) (19, 1.29027477310347290000e+001) (20, 1.65469330393291700000e+000) (21, 4.77092433125652440000e+000) (22, 1.30585236471369260000e+002) (23, 1.82491011583700820000e+000) (24, 1.78478560262823320000e+000) (25, 4.42176112397650730000e+000) (26, 1.67526826106529310000e+000) (27, 1.30187877671167060000e+001) (28, 1.61545990624037160000e+000) (29, 1.36998172356640390000e+001) (30, 1.61252942499889010000e+001) (31, 3.81639891457730530000e-001) (32, 5.60546629877861320000e+000) (33, 4.51574915885108210000e+000) (34, 4.02786775311984350000e+000) (35, 8.65559796697748140000e+000) (36, 1.74481781416182910000e+000) (37, 4.72490939012492640000e+000) (38, 4.98540129608064130000e+000) (39, 1.71424726807991680000e+000) (40, 5.63536741586519520000e+000) (41, 1.27752029198869610000e+001) (42, 8.58495728362010270000e+000) (43, 1.38500927705300970000e+001) (44, 1.29694454393749260000e+001) (45, 1.36718277456373900000e+001) (46, 1.08438392627298210000e+001) (47, 1.73529219293506600000e+000) (48, 4.51694108554621110000e+000) (49, 1.08100196841419790000e+001) (50, 6.11909168668595900000e-001) (51, 9.42087585041843490000e+000) (52, 1.01257811460023710000e+001) (53, 6.17484161017588210000e+000) (54, 8.56497437197386450000e+000) (55, 5.59164182843732680000e+000) (56, 7.60930955744333910000e+000) (57, 3.39744667486761460000e+000) (58, 1.58256806277237310000e+000) (59, 1.63887511687141620000e+001) (60, 1.23003440687797060000e+001) (61, 4.79858546481419790000e+000) (62, 4.19728676091820320000e+000) (63, 8.01235325619845360000e+000) (64, 5.43426086559873590000e+000) (65, 8.82062200468380020000e+000) (66, 4.82849269137686040000e+000) (67, 3.21388212408560180000e+001) (68, 4.88961329088552970000e+000) (69, 4.87166286037300100000e+000) (70, 8.64138711934070440000e+000) (71, 1.06606428878084480000e+001) (72, 1.27569052083199240000e-001) (73, 4.45957414069639140000e+000) (74, 1.70630568767220360000e+000) (75, 1.62446349570307160000e+001) (76, 1.60026214860881380000e+000) (77, 4.86990504489275810000e+000) (78, 6.53408561390342420000e+000) (79, 7.11030597162553240000e+000) (80, 2.36969522588582530000e+000) (81, 4.43671461820538230000e+000) (82, 4.96493269770807900000e+001) (83, 1.62531371535513220000e+001) (84, 1.58626679175101230000e+000) (85, 8.58660196458099990000e+000) (86, 7.20882281956398610000e+000) (87, 5.95062594107740870000e-001) (88, 1.08519640348215240000e+001) (89, 1.76230151351782070000e+001) (90, 2.46135156428395730000e+001) (91, 1.73606346112124680000e+001) (92, 1.73210838299621490000e+001) (93, 2.11301283378906640000e+001) (94, 1.50614023475554770000e+001) (95, 1.67162445776680310000e+000) (96, 2.78444653735126940000e+001) (0, 5.11292513956131870000e+000) (1, 4.25647521179283130000e+000) (2, 2.62867526182953770000e+001) (3, 2.44314569624317740000e+001) (4, 1.69591068154837320000e+001) (5, 1.70614261529121620000e+001) (6, 9.97051260764705740000e+000) (7, 5.13638706256457310000e+000) (8, 1.90705920861274600000e+000) (9, 2.41282888800616670000e+001) (10, 1.54308523847902740000e+001) (11, 1.15831286654171690000e+001) (12, 4.30371078085523790000e+000) (13, -2.55428519289654650000e-001) (14, 1.02731080115778750000e+001) (15, 1.86115466536193530000e+000) (16, 1.36667598885266650000e+001) (17, 9.42925822465541860000e+000) (18, 1.92529041052964800000e+000) (19, 1.46611636211044270000e+001) (20, 2.02557728172462960000e+000) (21, 4.26916488241759140000e+000) (22, 1.02003846229061740000e+001) (23, 3.33580910976569810000e+000) (24, 3.35133645873108940000e+000) (25, 5.20050758190010500000e+000) (26, 1.96387073130511890000e+000) (27, 1.46518740733034320000e+001) (28, 1.90985462174922870000e+000) (29, 8.54858303834869200000e+000) (30, 1.03592897266867290000e+001) (31, 2.54323353911431660000e+000) (32, 7.33332413336321660000e+000) (33, 5.26513161576862120000e+000) (34, 3.38456186974940820000e+000) (35, 1.15198352083859280000e+001) (36, 1.92873279483225300000e+000) (37, 5.31531208614383740000e+000) (38, 2.57995935793216620000e+000) (39, 3.39734475504188360000e+000) (40, 7.22033584764269860000e+000) (41, 1.43142517933758370000e+001) (42, 1.02673427563603480000e+001) (43, 3.81589802229634710000e+001) (44, 1.05181505875411330000e+001) (45, 1.22794086771614990000e+001) (46, 9.84094349556298200000e+000) (47, 3.40120218138722890000e+000) (48, 3.22081768626933140000e+000) (49, 9.85041004680724090000e+000) (50, 2.57462415156310430000e+000) (51, 1.58822488295749620000e+001) (52, 5.31784318462658940000e+000) (53, 7.12053770274155170000e+000) (54, 1.01617275204955090000e+001) (55, 7.19835708936716490000e+000) (56, 7.12802017993541610000e+000) (57, 3.48841961905869850000e+000) (58, 1.85840198130517780000e+000) (59, 1.49258659210607550000e+001) (60, 9.92228583771746830000e-001) (61, 4.13276962172533930000e+000) (62, 7.07463523395740610000e+000) (63, 1.07778147688589510000e+001) (64, 6.26642479733243900000e+000) (65, 4.95339691498117760000e+000) (66, 4.12452987563156000000e+000) (67, 1.83178062805891880000e+001) (68, 4.13594955187584560000e+000) (69, 4.19940780829964580000e+000) (70, 1.07526053850460390000e+001) (71, 1.45001950780525860000e+001) (72, 7.79946871624412010000e-001) (73, 3.36988384763375450000e+000) (74, -1.57378945769111820000e+000) (75, 1.50131767195268540000e+001) (76, 1.99766590179111560000e+000) (77, 4.27249129843323150000e+000) (78, 1.03596664384171650000e+001) (79, 8.00248977832935000000e+000) (80, 4.58286081605025600000e+000) (81, 2.82065729196023660000e+000) (82, 5.38613003939431590000e+000) (83, 1.49439445388123070000e+001) (84, 1.85705310584217200000e+000) (85, 1.07195426438857130000e+001) (86, 8.05642043345089930000e+000) (87, 5.17936744222053940000e-001) (88, 1.17294759111075900000e+001) (89, 1.89666360090428550000e+001) (90, 2.44933405162945950000e+001) (91, 2.03896544368671360000e+001) (92, 2.03312132747573710000e+001) (93, 2.23187232131018940000e+001) (94, 1.43819070450764390000e+001) (95, 1.93835193396711420000e+000) (96, 2.64036823417743210000e+001) (0, 6.47585363243728640000e+000) (1, 1.13067539606328240000e+001) (2, 1.96873350056797700000e+001) (3, 2.35378697433845370000e+001) (4, 1.92603932445176550000e+001) (5, 1.91428822477578890000e+001) (6, 2.98173184443271500000e+001) (7, 6.34554967959398560000e+000) (8, 1.61583326858011290000e+000) (9, 1.99172417227963190000e+001) (10, 1.27907031989376850000e+001) (11, 9.44520036786124880000e+000) (12, 5.61399718679662210000e+000) (13, 5.23913895703257420000e+001) (14, 8.78701880414392990000e+000) (15, 1.55864942919928670000e+000) (16, 1.15713292762106070000e+001) (17, 5.90767575071474480000e+000) (18, 1.71286697041742640000e+000) (19, 1.39392782779434670000e+001) (20, 1.70447463643303570000e+000) (21, 5.64016295530086250000e+000) (22, 8.77134498793992990000e+000) (23, 3.41851970516380770000e+000) (24, 3.38617106862602980000e+000) (25, 5.92885739043221070000e+001) (26, 1.66101759773233940000e+000) (27, 1.40210470812418640000e+001) (28, 1.65312574904897260000e+000) (29, 1.05136443287095670000e+002) (30, 1.21940789564586360000e+001) (31, 3.27621604939716080000e+000) (32, 5.32624509610166540000e+000) (33, 5.93678341604635310000e+001) (34, 7.42702604946810250000e+001) (35, 9.47324602215807590000e+000) (36, 1.66475905579071370000e+000) (37, 5.11380444677180000000e+000) (38, 7.98439545305507270000e+000) (39, 3.48062908612432010000e+000) (40, 5.20409544236863120000e+000) (41, 1.28734907490068940000e+001) (42, 1.26533547513615850000e+001) (43, 9.53896614579995550000e+000) (44, 1.15055244076069570000e+001) (45, 3.70240293966490980000e+002) (46, 9.82177190086829020000e+000) (47, 3.48872233890238310000e+000) (48, 4.57915575805109490000e+000) (49, 9.84263982228020850000e+000) (50, 2.76132656643161000000e+000) (51, 1.07971953494458840000e+001) (52, 1.09214823773650340000e+001) (53, 5.34879058229496440000e+000) (54, 1.26300393142236520000e+001) (55, 5.33950803853503510000e+000) (56, 8.78502554084582240000e+000) (57, 3.52683455297924510000e+000) (58, 1.70689161967984070000e+000) (59, 1.55181291831952350000e+001) (60, 8.43064284927836200000e+000) (61, 5.49184752561282430000e+000) (62, 6.58340440100703180000e+000) (63, 6.85269346406247330000e+000) (64, 8.20900885121258560000e+000) (65, 9.54454280679169110000e+000) (66, 5.49201231755446620000e+000) (67, 2.23355206655178870000e+001) (68, 5.66105529226552930000e+000) (69, 5.49975157834721080000e+000) (70, 9.05763683339287160000e+000) (71, 1.17894002401365300000e+001) (72, 8.96908543177414640000e-001) (73, 4.47817309576013670000e+000) (74, 2.32519356119151820000e+000) (75, 1.55223772323054040000e+001) (76, 1.70366286587467400000e+000) (77, 5.54135313935726170000e+000) (78, 9.39092273073239530000e+000) (79, 4.59758662182419190000e+000) (80, 1.85851059790497470000e+000) (81, 4.02240232638026110000e+000) (82, 8.87750501931568610000e+000) (83, 1.54890947586221030000e+001) (84, 1.70224074375381380000e+000) (85, 9.17677136381769820000e+000) (86, 4.58363397914489570000e+000) (87, 1.52798172275495950000e+000) (88, 1.13578540469571900000e+001) (89, 1.52571068066520970000e+001) (90, 2.34288121194910060000e+001) (91, -1.69263917197273980000e+001) (92, -1.68841431801007750000e+001) (93, 2.19660178907517750000e+001) (94, 1.66798191144310760000e+001) (95, 1.55558546733576470000e+000) (96, 2.71923679975555290000e+001) (0, 6.29059532064842750000e+000) (1, 1.05340905279321040000e+001) (2, 1.90665362538372630000e+001) (3, 2.19603911510171980000e+001) (4, 2.01169905590535830000e+001) (5, 2.02631453501715200000e+001) (6, 1.48678535896945160000e+001) (7, 6.34172446805899700000e+000) (8, 1.47175334821954240000e+000) (9, 1.77010060135841270000e+001) (10, 1.28777887904681110000e+001) (11, 8.91739604009627660000e+000) (12, 6.87261052862782230000e+000) (13, 8.53244467058130060000e+000) (14, 1.23503346918553310000e+001) (15, 1.41613811309942280000e+000) (16, 9.79103704323634010000e+000) (17, 1.01232631117427640000e+001) (18, 1.55012859459537220000e+000) (19, 1.46163497365356850000e+001) (20, 1.51519817169324540000e+000) (21, 7.03742376403043400000e+000) (22, 1.23371022819012860000e+001) (23, 2.54625827369894870000e+000) (24, 2.48445407597010880000e+000) (25, 7.11393193628031990000e+000) (26, 1.45782512481823390000e+000) (27, 1.44902510962727740000e+001) (28, 1.48455242123023370000e+000) (29, 1.12583838140028300000e+001) (30, 7.82119676494965610000e+000) (31, 1.25000831804592180000e+000) (32, 5.49535676029655560000e+000) (33, 7.12273321028192630000e+000) (34, 5.71136108922680390000e+000) (35, 8.92401225252385010000e+000) (36, 1.45090984236014990000e+000) (37, -1.37812277939072510000e+000) (38, 8.08332409237673490000e+000) (39, 2.59802829770060400000e+000) (40, 5.58656159726144620000e+000) (41, 1.38012116124052880000e+001) (42, 1.17396692377350930000e+001) (43, 1.40533353528854760000e+001) (44, 1.07216639737842170000e+001) (45, 2.93964539361936300000e+001) (46, 1.06372666276994930000e+001) (47, 2.62007419315792410000e+000) (48, 5.97921164059159250000e+000) (49, 1.06279160447422200000e+001) (50, 7.49198704598586950000e-001) (51, 8.85528760569570570000e+000) (52, 1.21856528069304680000e+001) (53, 1.71859150058553480000e+000) (54, 1.18757043932396350000e+001) (55, 5.58084870067597110000e+000) (56, 1.13549385103884100000e+001) (57, 4.49626175924220830000e+000) (58, 1.43933147247444750000e+000) (59, 1.37279057298102480000e+001) (60, 7.35686751542833140000e+000) (61, 6.95646062181390330000e+000) (62, 8.46861254339879820000e+000) (63, 6.68534677850063820000e+000) (64, 1.04899287487286730000e+001) (65, 9.47841347660842540000e+000) (66, 6.96940007493897440000e+000) (67, 2.21970096442162510000e+001) (68, 7.00933538810428920000e+000) (69, 6.89265447543048640000e+000) (70, 1.00326162871719320000e+001) (71, 1.27420160659324770000e+001) (72, 3.71191992764468630000e-001) (73, 6.09591696881803550000e+000) (74, 2.64770904236268880000e+000) (75, 1.36577458102503590000e+001) (76, 1.55986370201725230000e+000) (77, 6.92213445589928610000e+000) (78, 7.91216977858147170000e+000) (79, 6.43731812359733890000e+000) (80, 2.99905881535323630000e+000) (81, 4.99405552631036450000e+000) (82, 8.42741966982480940000e+000) (83, 1.37391911242403900000e+001) (84, 1.52042277957813200000e+000) (85, 1.01227408048509930000e+001) (86, 6.30823487015361820000e+000) (87, 1.00290515351420710000e+000) (88, 1.06458783834662360000e+001) (89, 1.48613190749565120000e+001) (90, 2.20023284053867950000e+001) (91, 1.74447989534830370000e+001) (92, 1.73840445649118460000e+001) (93, 2.18905362696332300000e+001) (94, 1.69801051023108980000e+001) (95, 1.51771282460109470000e+000) (96, 2.70396683327149350000e+001) (97, 1.50000000000000000000e+003) (98, 1.40000000000000000000e+003) (99, 1.50000000000000000000e+003) (100, 1.50000000000000000000e+003) (101, 1.50000000000000000000e+003) (102, 1.50000000000000000000e+003) (103, 1.50000000000000000000e+003) (104, 1.50000000000000000000e+003) (105, 1.50000000000000000000e+003) (106, 1.50000000000000000000e+003) (107, 1.50000000000000000000e+003) (97, 1.50000000000000000000e+003) (98, 1.50000000000000000000e+003) (99, 1.49613719806365520000e+003) (100, 1.40356195653390230000e+003) (101, 1.44855983595456750000e+003) (102, 1.42293935905341620000e+003) (103, 1.50000000000000000000e+003) (104, 1.45739934485038590000e+003) (105, 1.50000000000000000000e+003) (106, 1.50000000000000000000e+003) (107, 1.50000000000000000000e+003) (97, 1.36777245074378560000e+003) (98, 1.50000000000000000000e+003) (99, 1.49100000405311580000e+003) (100, 1.50000000000000000000e+003) (101, 1.50000000000000000000e+003) (102, 1.50000000000000000000e+003) (103, 1.47720000109672560000e+003) (104, 1.47800000083446500000e+003) (105, 1.44058904184343960000e+003) (106, 1.50000000000000000000e+003) (107, 1.45220000109672560000e+003) (97, 1.50000000000000000000e+003) (98, 1.46177044915369650000e+003) (99, 1.50000000000000000000e+003) (100, 1.41714763399767640000e+003) (101, 1.44365865302687980000e+003) (102, 1.48334526041155460000e+003) (103, 1.49227419959077970000e+003) (104, 1.50000000000000000000e+003) (105, 1.42100814124385920000e+003) (106, 1.40180975076786900000e+003) (107, 1.48258206945788310000e+003) 
