FANN_FLO_2.1
num_layers=3
learning_rate=0.700000
connection_rate=1.000000
network_type=0
learning_momentum=0.000000
training_algorithm=2
train_error_function=1
train_stop_function=0
cascade_output_change_fraction=0.010000
quickprop_decay=-0.000100
quickprop_mu=1.750000
rprop_increase_factor=1.200000
rprop_decrease_factor=0.500000
rprop_delta_min=0.000000
rprop_delta_max=50.000000
rprop_delta_zero=0.100000
cascade_output_stagnation_epochs=12
cascade_candidate_change_fraction=0.010000
cascade_candidate_stagnation_epochs=12
cascade_max_out_epochs=150
cascade_min_out_epochs=50
cascade_max_cand_epochs=150
cascade_min_cand_epochs=50
cascade_num_candidate_groups=2
bit_fail_limit=3.49999999999999980000e-001
cascade_candidate_limit=1.00000000000000000000e+003
cascade_weight_multiplier=4.00000000000000020000e-001
cascade_activation_functions_count=10
cascade_activation_functions=3 5 7 8 10 11 14 15 16 17 
cascade_activation_steepnesses_count=4
cascade_activation_steepnesses=2.50000000000000000000e-001 5.00000000000000000000e-001 7.50000000000000000000e-001 1.00000000000000000000e+000 
layer_sizes=97 11 5 
scale_included=0
neurons (num_inputs, activation_function, activation_steepness)=(0, 0, 0.00000000000000000000e+000) (0, 0, 0.00000000000000000000e+000) (0, 0, 0.00000000000000000000e+000) (0, 0, 0.00000000000000000000e+000) (0, 0, 0.00000000000000000000e+000) (0, 0, 0.00000000000000000000e+000) (0, 0, 0.00000000000000000000e+000) (0, 0, 0.00000000000000000000e+000) (0, 0, 0.00000000000000000000e+000) (0, 0, 0.00000000000000000000e+000) (0, 0, 0.00000000000000000000e+000) (0, 0, 0.00000000000000000000e+000) (0, 0, 0.00000000000000000000e+000) (0, 0, 0.00000000000000000000e+000) (0, 0, 0.00000000000000000000e+000) (0, 0, 0.00000000000000000000e+000) (0, 0, 0.00000000000000000000e+000) (0, 0, 0.00000000000000000000e+000) (0, 0, 0.00000000000000000000e+000) (0, 0, 0.00000000000000000000e+000) (0, 0, 0.00000000000000000000e+000) (0, 0, 0.00000000000000000000e+000) (0, 0, 0.00000000000000000000e+000) (0, 0, 0.00000000000000000000e+000) (0, 0, 0.00000000000000000000e+000) (0, 0, 0.00000000000000000000e+000) (0, 0, 0.00000000000000000000e+000) (0, 0, 0.00000000000000000000e+000) (0, 0, 0.00000000000000000000e+000) (0, 0, 0.00000000000000000000e+000) (0, 0, 0.00000000000000000000e+000) (0, 0, 0.00000000000000000000e+000) (0, 0, 0.00000000000000000000e+000) (0, 0, 0.00000000000000000000e+000) (0, 0, 0.00000000000000000000e+000) (0, 0, 0.00000000000000000000e+000) (0, 0, 0.00000000000000000000e+000) (0, 0, 0.00000000000000000000e+000) (0, 0, 0.00000000000000000000e+000) (0, 0, 0.00000000000000000000e+000) (0, 0, 0.00000000000000000000e+000) (0, 0, 0.00000000000000000000e+000) (0, 0, 0.00000000000000000000e+000) (0, 0, 0.00000000000000000000e+000) (0, 0, 0.00000000000000000000e+000) (0, 0, 0.00000000000000000000e+000) (0, 0, 0.00000000000000000000e+000) (0, 0, 0.00000000000000000000e+000) (0, 0, 0.00000000000000000000e+000) (0, 0, 0.00000000000000000000e+000) (0, 0, 0.00000000000000000000e+000) (0, 0, 0.00000000000000000000e+000) (0, 0, 0.00000000000000000000e+000) (0, 0, 0.00000000000000000000e+000) (0, 0, 0.00000000000000000000e+000) (0, 0, 0.00000000000000000000e+000) (0, 0, 0.00000000000000000000e+000) (0, 0, 0.00000000000000000000e+000) (0, 0, 0.00000000000000000000e+000) (0, 0, 0.00000000000000000000e+000) (0, 0, 0.00000000000000000000e+000) (0, 0, 0.00000000000000000000e+000) (0, 0, 0.00000000000000000000e+000) (0, 0, 0.00000000000000000000e+000) (0, 0, 0.00000000000000000000e+000) (0, 0, 0.00000000000000000000e+000) (0, 0, 0.00000000000000000000e+000) (0, 0, 0.00000000000000000000e+000) (0, 0, 0.00000000000000000000e+000) (0, 0, 0.00000000000000000000e+000) (0, 0, 0.00000000000000000000e+000) (0, 0, 0.00000000000000000000e+000) (0, 0, 0.00000000000000000000e+000) (0, 0, 0.00000000000000000000e+000) (0, 0, 0.00000000000000000000e+000) (0, 0, 0.00000000000000000000e+000) (0, 0, 0.00000000000000000000e+000) (0, 0, 0.00000000000000000000e+000) (0, 0, 0.00000000000000000000e+000) (0, 0, 0.00000000000000000000e+000) (0, 0, 0.00000000000000000000e+000) (0, 0, 0.00000000000000000000e+000) (0, 0, 0.00000000000000000000e+000) (0, 0, 0.00000000000000000000e+000) (0, 0, 0.00000000000000000000e+000) (0, 0, 0.00000000000000000000e+000) (0, 0, 0.00000000000000000000e+000) (0, 0, 0.00000000000000000000e+000) (0, 0, 0.00000000000000000000e+000) (0, 0, 0.00000000000000000000e+000) (0, 0, 0.00000000000000000000e+000) (0, 0, 0.00000000000000000000e+000) (0, 0, 0.00000000000000000000e+000) (0, 0, 0.00000000000000000000e+000) (0, 0, 0.00000000000000000000e+000) (0, 0, 0.00000000000000000000e+000) (0, 0, 0.00000000000000000000e+000) (97, 5, 5.00000000000000000000e-001) (97, 5, 5.00000000000000000000e-001) (97, 5, 5.00000000000000000000e-001) (97, 5, 5.00000000000000000000e-001) (97, 5, 5.00000000000000000000e-001) (97, 5, 5.00000000000000000000e-001) (97, 5, 5.00000000000000000000e-001) (97, 5, 5.00000000000000000000e-001) (97, 5, 5.00000000000000000000e-001) (97, 5, 5.00000000000000000000e-001) (0, 5, 0.00000000000000000000e+000) (11, 5, 5.00000000000000000000e-001) (11, 5, 5.00000000000000000000e-001) (11, 5, 5.00000000000000000000e-001) (11, 5, 5.00000000000000000000e-001) (0, 5, 0.00000000000000000000e+000) 
connections (connected_to_neuron, weight)=(0, 5.19676524724220900000e+000) (1, 8.87039030435294150000e+000) (2, 2.37460949276430570000e+001) (3, 2.36190641655429730000e+001) (4, 1.72244069561835000000e+001) (5, 1.72410695538399250000e+001) (6, 1.57363978804258680000e+000) (7, 5.08381969060129620000e+000) (8, -6.68580785858563180000e-001) (9, 1.73797298708662850000e+001) (10, 9.69672629658861140000e+000) (11, 9.94094728495550230000e+000) (12, 4.39447335345514920000e+000) (13, 4.55094013248350930000e+000) (14, 1.41641534999488300000e+001) (15, -7.78108377475205780000e-001) (16, 1.37867854891873360000e+001) (17, 6.11816795373495290000e+000) (18, -6.77302703726375580000e-001) (19, 1.53030157273123280000e+001) (20, -7.72383280563976540000e-001) (21, 4.31204537493925690000e+000) (22, 1.42527582407472120000e+001) (23, 2.02425137167690530000e+000) (24, 1.92705899482468260000e+000) (25, 3.32678311151182180000e+000) (26, -7.20192112493857840000e-001) (27, 1.52876226638863140000e+001) (28, -6.43263400064726600000e-001) (29, 9.57397513671807230000e+000) (30, 1.79375040569436060000e+001) (31, 7.13798261221682220000e-001) (32, 1.93421240639157440000e+000) (33, 3.27467130702648030000e+000) (34, 5.01505909246825790000e+000) (35, 1.00657702815119500000e+001) (36, -7.48488016891964980000e-001) (37, 2.25788269537987420000e+001) (38, 5.33594785508134000000e+000) (39, 1.94921475281821150000e+000) (40, 2.02646703761296050000e+000) (41, 5.58556482392171990000e+000) (42, 8.38464902049901890000e+000) (43, 7.38161047306396090000e+001) (44, 9.79587841579983200000e+000) (45, 1.25107398224033410000e+001) (46, 6.07507189475584130000e+000) (47, 2.04002285754207110000e+000) (48, -5.37614549965295230000e-001) (49, 6.17172717415410150000e+000) (50, 3.48397959737002470000e+000) (51, 2.18708054172020350000e+001) (52, 8.66181023559510520000e+000) (53, 7.29282885663525780000e+001) (54, 8.41492856374975770000e+000) (55, 1.89362402376007570000e+000) (56, 6.04770850410670760000e+000) (57, -1.00110657115267480000e+000) (58, -7.32460178900164790000e-001) (59, 1.55311753118048750000e+001) (60, 5.54555318317452440000e+000) (61, 4.42865304095528780000e+000) (62, 7.56986525280623470000e+000) (63, 9.64005967093510560000e+000) (64, 4.21739902716456960000e+000) (65, 4.69193234943999030000e+000) (66, 4.32974556280122690000e+000) (67, 1.95560701976741530000e+001) (68, 4.30596016539076930000e+000) (69, 4.34252022770995530000e+000) (70, 1.08028453956949090000e+001) (71, 1.08106517571945770000e+001) (72, -1.50654507383116250000e+000) (73, -5.89024461329879180000e-001) (74, -4.08126600727517110000e-001) (75, 1.54592087531101770000e+001) (76, -8.13240208197547940000e-001) (77, 4.38675240618949140000e+000) (78, 1.11051359893176330000e+001) (79, 2.33005160637871670000e+000) (80, 3.85617353750464090000e+000) (81, 1.05425416830038680000e+000) (82, 5.35179992825802220000e+000) (83, 1.54204880484951620000e+001) (84, -7.14936987030836520000e-001) (85, 1.08150951560246200000e+001) (86, 2.24760532178635010000e+000) (87, -2.68567501443831900000e-001) (88, 1.06225208683886180000e+001) (89, 2.86866835130016110000e+001) (90, 2.35161466806029510000e+001) (91, 1.88512443277248100000e+001) (92, 1.87027396830910040000e+001) (93, 2.11010770959231100000e+001) (94, 1.60572083011001750000e+001) (95, -6.40254363881244900000e-001) (96, 2.79831230501087200000e+001) (0, 2.11315744696767570000e+001) (1, 3.11147132010836810000e+000) (2, 1.19307762977451460000e+001) (3, 1.37870088068335850000e+001) (4, 1.22134893617026510000e+001) (5, 1.21185308700793590000e+001) (6, 1.98359862433088910000e+001) (7, 2.11238901494651190000e+001) (8, 6.46600704948484140000e+000) (9, 1.86690116419107710000e+001) (10, 1.57490355340318330000e+001) (11, 1.91392966743129240000e+001) (12, 2.30375883148124280000e+001) (13, 9.37835167605754690000e-001) (14, 6.95057015264645090000e+000) (15, 6.33190670172750280000e+000) (16, 3.25760944765093190000e+001) (17, 9.80329611948720720000e+000) (18, 6.34747676859676170000e+000) (19, 1.87662028783534450000e+002) (20, 6.46739254455148420000e+000) (21, 2.29381742418816150000e+001) (22, 6.97317147026080610000e+000) (23, 7.94180272230071530000e+000) (24, 7.97789279827041310000e+000) (25, 9.85487189559987800000e+000) (26, 6.30630245368062780000e+000) (27, 1.87566441623096150000e+002) (28, 6.35911617736398500000e+000) (29, 1.95796597784178120000e+002) (30, 8.88122541404040970000e+000) (31, 2.55298860119354880000e+000) (32, 1.01974590963238610000e+001) (33, 9.91442390202289480000e+000) (34, 1.16600805083835300000e+002) (35, 1.89816367636910890000e+001) (36, 6.30242061923324390000e+000) (37, -9.42281888764356950000e+001) (38, 8.30947292233924630000e+000) (39, 7.83422214248342200000e+000) (40, 1.03297344914181030000e+001) (41, -3.26658498041552010000e+001) (42, 8.26248806710107960000e+000) (43, 1.17735013531015320000e+000) (44, -1.43354205976577940000e+001) (45, 4.77545051236626420000e+002) (46, 7.52458703553512010000e+001) (47, 7.84698459961576140000e+000) (48, 3.36449343339631480000e+000) (49, 7.52423669433429150000e+001) (50, 6.16806980322041550000e+000) (51, 4.12961168144537820000e+001) (52, 1.80214396908743060000e+001) (53, 3.15649018323434570000e+000) (54, 8.32144802803842690000e+000) (55, 1.03238934150441590000e+001) (56, 2.32205335750728640000e+001) (57, 1.18226691483114440000e+001) (58, 6.30967769707619470000e+000) (59, 2.34135601597841610000e+001) (60, 1.26811525754774160000e+001) (61, 2.28613370896389550000e+001) (62, 5.90468183844417020000e+000) (63, -3.75077854111426300000e-001) (64, 8.85929422728995630000e+001) (65, 2.97877048982504210000e+001) (66, 2.29253507570436060000e+001) (67, 3.31752510408922060000e+001) (68, 2.30001920626571240000e+001) (69, 2.30030179933717310000e+001) (70, 9.99617179475038500000e+000) (71, 1.12812210545089220000e+001) (72, 6.83518197424564320000e-001) (73, 3.47972171382151000000e+000) (74, -5.74897589965085780000e-001) (75, 2.33452312949111910000e+001) (76, 6.37460079352437780000e+000) (77, 2.30145475433280530000e+001) (78, 8.96505750115084690000e+000) (79, -5.16079248582489360000e+001) (80, 2.22057017273082740000e+000) (81, 1.95919377290467870000e+001) (82, 1.56341259155009920000e+001) (83, 2.34121563511903940000e+001) (84, 6.27183590392648500000e+000) (85, 1.00000353156706510000e+001) (86, -5.17153101173705920000e+001) (87, 4.18520146008534420000e+000) (88, 9.19912885236818130000e+000) (89, -5.39989315520705190000e+002) (90, 1.37394013924091300000e+001) (91, -6.11271955380521490000e+001) (92, -6.11112775737716310000e+001) (93, 1.25726977232010530000e+001) (94, 3.04459156055961730000e+001) (95, 6.36991329799472620000e+000) (96, 2.39618826766276780000e+001) (0, 8.28521442740767890000e+000) (1, 5.31780064160142980000e+000) (2, 2.21823934127868650000e+001) (3, 2.03231205317368870000e+001) (4, 1.50540725146614140000e+001) (5, 1.50909804781160690000e+001) (6, 1.30100604762792550000e+001) (7, 8.11478595018158620000e+000) (8, 1.49903693478050790000e+000) (9, 1.97297352098283550000e+001) (10, 1.14515696917605470000e+001) (11, 1.28615306143484390000e+001) (12, 7.46913812011781530000e+000) (13, -5.84328331250940460000e+000) (14, 9.59606208227625680000e+000) (15, 1.43748297225151720000e+000) (16, 3.48067598271507850000e+001) (17, 1.40170919748849500000e+001) (18, 1.45272954981252260000e+000) (19, 2.02637213697019800000e+001) (20, 1.44054693411505250000e+000) (21, 7.36845452040702220000e+000) (22, 9.71487312711777130000e+000) (23, 4.15686490967178650000e+000) (24, 4.23863981127086650000e+000) (25, 6.62709302366012040000e+000) (26, 1.33704352061654590000e+000) (27, 2.03344122921417070000e+001) (28, 1.51463751177743360000e+000) (29, 1.36404601073155440000e+001) (30, 9.96084850268759860000e+000) (31, 2.83830986738247490000e+000) (32, 3.65255558983289140000e+000) (33, 6.67311353147276880000e+000) (34, 5.78292918889809910000e+000) (35, 1.27225474652671000000e+001) (36, 1.36222662459484730000e+000) (37, 1.15541694243363340000e+000) (38, 1.07531885294740110000e+000) (39, 4.18642423509871260000e+000) (40, 3.66810124487485020000e+000) (41, 1.19072246487363030000e+001) (42, 9.43087378507981280000e+000) (43, 1.50463229463263810000e+001) (44, 8.72615819586913230000e+000) (45, 1.57953199418269640000e+001) (46, 1.10712439530089860000e+001) (47, 4.16937101467758180000e+000) (48, -2.39349446882300580000e+000) (49, 1.09823645540083330000e+001) (50, 3.60667366237953720000e+000) (51, 2.20962665718453410000e+001) (52, 6.97168067270112960000e+000) (53, -2.58312489319749790000e+000) (54, 9.33791724211137190000e+000) (55, 3.77023747683387040000e+000) (56, 4.11899198969925710000e+000) (57, -1.00065553208848530000e+000) (58, 1.43935674856816840000e+000) (59, 2.28151065922673620000e+001) (60, 3.80897912426038680000e+000) (61, 7.45461175293027270000e+000) (62, 9.43542641124561680000e+000) (63, 3.37095793795587410000e+000) (64, 1.25298822286491050000e+000) (65, 7.29878529351856200000e+000) (66, 7.37942254245551330000e+000) (67, 2.96988081024199530000e+001) (68, 7.39200798869405420000e+000) (69, 7.45021111220418140000e+000) (70, 3.23482169232512360000e+001) (71, 1.22206432222164900000e+001) (72, -5.60742651059485950000e-001) (73, -2.26031576161079470000e+000) (74, -2.26824410652569200000e+000) (75, 2.28818790532053810000e+001) (76, 1.45866827349591550000e+000) (77, 7.44443718791301470000e+000) (78, 3.00256677424727980000e+001) (79, -2.88400538209244110000e-001) (80, 5.20018785453114150000e+000) (81, -1.67737178677046760000e+001) (82, 5.72508963130010870000e+000) (83, 2.29277164629998820000e+001) (84, 1.35631841848953890000e+000) (85, 3.23116873747850160000e+001) (86, -3.69717679861222280000e-001) (87, 3.96274901275192880000e-002) (88, 9.51083824000437340000e+000) (89, 2.16646088092187520000e+001) (90, 2.03314335170379260000e+001) (91, 1.46048290310920790000e+001) (92, 1.47406139476715840000e+001) (93, 1.07814996897649780000e+001) (94, 1.35428688381557890000e+001) (95, 1.52403083126503170000e+000) (96, 2.61696959691831030000e+001) (0, 8.26570837458836750000e+000) (1, 9.83856524297325840000e+000) (2, 2.11514591099685450000e+001) (3, 2.30919076845268200000e+001) (4, 1.81645225161054180000e+001) (5, 1.82590842866643860000e+001) (6, 1.60400079226312220000e+001) (7, 8.30397741755683510000e+000) (8, -8.44443172472307050000e-001) (9, 1.28251025135273460000e+001) (10, 1.10272338875367120000e+001) (11, 8.85305663862770940000e+000) (12, 4.16203028140190320000e+000) (13, -1.11491362369526920000e-001) (14, 1.08505877681527720000e+001) (15, -9.21255909162337790000e-001) (16, 1.09484241314011060000e+001) (17, 8.08278917952827670000e+000) (18, -8.56253475206738670000e-001) (19, 1.38302460828286510000e+001) (20, -9.89481009799233260000e-001) (21, 4.18287378726138660000e+000) (22, 1.07458941579317230000e+001) (23, 1.67438527538538030000e+000) (24, 1.55794240131119420000e+000) (25, 5.99891234887598390000e+000) (26, -1.00322002198119530000e+000) (27, 1.37638459348542370000e+001) (28, -9.39456597226496100000e-001) (29, 1.29604005199167990000e+001) (30, 1.09765500972177200000e+001) (31, -3.61560709883731280000e+000) (32, 3.61410310013305570000e+000) (33, 6.01973143918281560000e+000) (34, 1.49939966763232540000e+000) (35, 8.91078979441450340000e+000) (36, -9.66104544955242890000e-001) (37, 6.42204056174175970000e+000) (38, -9.05739829929511410000e-001) (39, 1.58600636913520020000e+000) (40, 3.61664215369235190000e+000) (41, 1.09408173140510850000e+001) (42, 8.20457221654240070000e+000) (43, 1.41653608076639410000e+001) (44, 1.38496395351021190000e+001) (45, 1.81493420350338680000e+001) (46, 8.46203586465878570000e+000) (47, 1.69140187992820560000e+000) (48, 1.21945738856144150000e+000) (49, 8.44044162339743660000e+000) (50, -8.80954622249430890000e-001) (51, 1.05022599989379510000e+001) (52, 6.63506934755796960000e+000) (53, 1.33036898604832190000e+000) (54, 8.20125800457782180000e+000) (55, 3.50629669321781860000e+000) (56, 6.70095903360854540000e+000) (57, 1.34609856214953630000e+000) (58, -8.15201223152376530000e-001) (59, 1.77787400533270880000e+001) (60, 7.11174847014443760000e+000) (61, 4.23827540306013440000e+000) (62, 6.03572937502582360000e+000) (63, 5.19038063953070680000e+000) (64, 5.18708081640038720000e+000) (65, 6.11165505402402150000e+000) (66, 4.15253321257944920000e+000) (67, 2.25084727802368720000e+001) (68, 4.11368433562610920000e+000) (69, 4.08908716765725710000e+000) (70, 9.94837686479567300000e+000) (71, 1.01566734673097120000e+001) (72, -4.36817243019923660000e+000) (73, 1.24018492613384020000e+000) (74, -1.60994406529510110000e+000) (75, 1.79625962649315200000e+001) (76, -8.36172908800370320000e-001) (77, 4.09644190398543010000e+000) (78, 9.74168805532858960000e+000) (79, 3.35628402043094810000e+000) (80, 3.75055857724136390000e+000) (81, -9.66282463009965560000e-001) (82, 1.07454306833869570000e+001) (83, 1.78120286290361920000e+001) (84, -8.65018114703568490000e-001) (85, 9.80188637659486160000e+000) (86, 3.38533065278043170000e+000) (87, -2.30045383378814480000e+000) (88, 8.40594584291515720000e+000) (89, 1.31887481589896470000e+001) (90, 2.32715646744004690000e+001) (91, 1.44704063171281640000e+001) (92, 1.44260825821891640000e+001) (93, 1.71505744148283200000e+001) (94, 1.30528497477643270000e+001) (95, -9.14096489804559490000e-001) (96, 2.84894797075801020000e+001) (0, 6.85605737385556150000e+000) (1, 8.51666228472333840000e+000) (2, 6.92146746667995810000e+001) (3, 2.93246118875844100000e+001) (4, 1.89830540415962470000e+001) (5, 1.90363072154247560000e+001) (6, 1.34558438174162130000e+001) (7, 7.00326806870538920000e+000) (8, -1.14622583525593110000e+000) (9, 1.62976205675319400000e+001) (10, 9.73346325714530460000e+000) (11, 8.76830810276393890000e+000) (12, 1.14607340375222000000e+000) (13, 2.43389496352672020000e+000) (14, 1.33203059274024900000e+001) (15, -1.32100611465323500000e+000) (16, 1.01953801979390130000e+001) (17, 7.97507809923754520000e+000) (18, -1.14597560005600090000e+000) (19, -1.04826163037662980000e+001) (20, -1.28891993226766210000e+000) (21, 1.02154337892579040000e+000) (22, 1.33428523118860540000e+001) (23, 1.24096923805779660000e+000) (24, 1.17240844406221620000e+000) (25, 3.12208533244946590000e+001) (26, -1.21456690417934100000e+000) (27, -1.05331290050386940000e+001) (28, -1.25521021621609740000e+000) (29, -9.21826300692542060000e+000) (30, 3.07398176726895830000e+001) (31, 4.88336209285368920000e-001) (32, 1.39692214337811520000e+000) (33, 3.12751685078063590000e+001) (34, 3.94225763636657600000e+000) (35, 8.69705565986768290000e+000) (36, -1.25847559707545660000e+000) (37, 9.77651762784913530000e+001) (38, 3.75754189920708240000e+000) (39, 1.20240722335898000000e+000) (40, 1.36883986202702410000e+000) (41, 8.20030923321763790000e+000) (42, 8.26694047793679760000e+000) (43, 2.37350769537763460000e+001) (44, 1.98768257145637150000e+001) (45, 1.80383083013398390000e+001) (46, 8.02481171575825590000e+000) (47, 1.32426391280974660000e+000) (48, -1.08050812211013340000e-001) (49, 7.95789276895578720000e+000) (50, 2.37302153870944200000e+000) (51, 1.42263812223064040000e+001) (52, 1.18690582350667100000e+001) (53, 7.10139978006713960000e+000) (54, 8.40611894771296700000e+000) (55, 1.39291212914212960000e+000) (56, -2.94169832255948230000e+001) (57, 4.61739647776879190000e+000) (58, -1.16655665176335570000e+000) (59, 1.66012692600179110000e+001) (60, 6.53106406386360480000e+000) (61, 1.15721842924390850000e+000) (62, 6.91266630381623680000e+000) (63, 4.79169172455040950000e+001) (64, -6.26582613100910100000e+000) (65, -2.06191886235476220000e+001) (66, 1.01912638450311730000e+000) (67, -1.76198131378539520000e+000) (68, 1.10000407973565470000e+000) (69, 1.06056925932211230000e+000) (70, 1.10544607177300360000e+001) (71, 1.00474024339249070000e+001) (72, -1.93590264072486650000e+000) (73, -1.53686795558857590000e-001) (74, -2.50435845993471110000e+000) (75, 1.65978329777407650000e+001) (76, -1.17600489693108390000e+000) (77, 1.05615641454500180000e+000) (78, 9.33036170335547330000e+000) (79, 4.79483890686439820000e+000) (80, 4.41897052672162970000e+000) (81, 7.00692614847640560000e-001) (82, 8.52071841920474960000e+000) (83, 1.64381039663825770000e+001) (84, -1.16741114395085500000e+000) (85, 1.09999685347004950000e+001) (86, 4.83831425164173010000e+000) (87, 4.03565763241671330000e+000) (88, 9.02913822229396070000e+000) (89, 6.46547348981737850000e+001) (90, 2.93222254144651410000e+001) (91, 5.37185834515875410000e+001) (92, 5.36029828581994610000e+001) (93, 3.02348623269916420000e+001) (94, 1.03851915983269940000e+001) (95, -1.15144434111531300000e+000) (96, 2.92972738025315460000e+001) (0, 7.01640325500118060000e+000) (1, 2.18836506315723870000e+001) (2, 2.17706027671966500000e+001) (3, 2.47100539538015590000e+001) (4, 1.83153373343435640000e+001) (5, 1.82506766883216610000e+001) (6, 1.71324189712794420000e+001) (7, 6.93698430521817770000e+000) (8, -3.83677524171893600000e-001) (9, 6.22951777120931110000e+000) (10, 1.16248747143119270000e+001) (11, 9.21786284812843350000e+000) (12, 3.91743827589482580000e+000) (13, 3.22153684421767750000e+000) (14, 1.02856813389093400000e+001) (15, -5.03953401587968090000e-001) (16, 1.14958116391822710000e+001) (17, 1.02016380204813300000e+001) (18, -4.96940468095296460000e-001) (19, 1.38140027370269150000e+001) (20, -5.34593050025661600000e-001) (21, 3.98772636034231850000e+000) (22, 1.02062501850755890000e+001) (23, -9.92712700085317200000e-001) (24, -9.62146298305836420000e-001) (25, 3.43364096886612510000e+000) (26, -5.08183140896322440000e-001) (27, 1.37138013165410480000e+001) (28, -4.72007606767339330000e-001) (29, 1.27718960784597810000e+001) (30, 1.10384867747219140000e+001) (31, -3.10229139959003810000e+000) (32, 2.45076964063006920000e+000) (33, 3.46356039947968020000e+000) (34, -1.53001298530926350000e+001) (35, 9.13566070043624910000e+000) (36, -5.40818635963249640000e-001) (37, 4.52933918400058480000e+000) (38, -8.54913069637395400000e+000) (39, -1.03563872473080920000e+000) (40, 2.45740416658479430000e+000) (41, -3.63321831146265030000e+001) (42, 1.09067422010179630000e+001) (43, 1.41215553735969390000e+001) (44, 1.16811465703806090000e+001) (45, 1.69894086477186510000e+001) (46, 8.06947022047791940000e+000) (47, -9.81592097596868940000e-001) (48, 1.70581795659687560000e-001) (49, 8.14649048563946470000e+000) (50, -2.92981372105092810000e+000) (51, -2.25741649675985590000e+001) (52, 2.79724849667125540000e+000) (53, 5.52433917960534430000e+000) (54, 1.09791787274354000000e+001) (55, 2.49410460529282840000e+000) (56, 6.11815513170574740000e+000) (57, -2.20376759566026650000e+000) (58, -5.60465854250259300000e-001) (59, 1.68269903824778520000e+001) (60, 6.38273333042422840000e+000) (61, 3.88688407444084790000e+000) (62, 5.68564621497954010000e+000) (63, 5.24743364700460280000e+000) (64, -1.17279914300497960000e+000) (65, 6.19040221805589930000e+000) (66, 3.88445487224186530000e+000) (67, 2.20545390794597830000e+001) (68, 3.84012503900250790000e+000) (69, 3.90206351854532050000e+000) (70, 1.36539995374123110000e+001) (71, 1.10229557218998800000e+001) (72, -1.24387632476713040000e+001) (73, 5.73737848658328400000e-002) (74, -9.30131263383215720000e-001) (75, 1.68626471177791610000e+001) (76, -4.09239050589615740000e-001) (77, 3.84754081048689490000e+000) (78, 1.47586798180708490000e+001) (79, 3.09311156404683320000e+000) (80, 1.06303576544979070000e+001) (81, -3.36136262218384150000e+000) (82, 1.00039937177982880000e+001) (83, 1.69389044434887670000e+001) (84, -3.77140652977037470000e-001) (85, 1.37756792308725020000e+001) (86, 3.10827880037498040000e+000) (87, -4.23917779745237320000e+000) (88, 1.08461043546773350000e+001) (89, 5.04502552093125160000e+001) (90, 2.48201064425465250000e+001) (91, 1.51086543063355570000e+001) (92, 1.52102595316898090000e+001) (93, 2.08892813196291660000e+001) (94, 1.49775938029637530000e+001) (95, -5.50712440751866540000e-001) (96, 2.78795191024831650000e+001) (0, 6.72826907421177900000e+000) (1, -2.29008109011401050000e+001) (2, 2.01900616397033410000e+001) (3, 2.15238152639374430000e+001) (4, 1.88762246137838010000e+001) (5, 1.90494912183277800000e+001) (6, 1.42707407386419030000e+001) (7, 6.82859865958539910000e+000) (8, 1.61231568105205390000e-001) (9, 1.85401392191676810000e+001) (10, 9.29586122866893480000e+000) (11, 8.22825060056952570000e+000) (12, 6.03095783081550610000e+000) (13, 4.58037071150187880000e-001) (14, 1.05671512891133720000e+001) (15, 1.49006223327994990000e-001) (16, 1.14180730893780260000e+001) (17, 1.27802770790432110000e+001) (18, 1.82850217468962210000e-001) (19, 1.42370248895815710000e+001) (20, 1.79780146129308260000e-001) (21, 6.09091877725642480000e+000) (22, 1.05858219449003150000e+001) (23, 3.49715392920542010000e+000) (24, 3.35952575761201500000e+000) (25, 9.72009443474400390000e+000) (26, 6.52476791512593270000e-002) (27, 1.42126474541358170000e+001) (28, 2.04005008585799730000e-001) (29, 1.20441958217771550000e+001) (30, 1.05140692684607910000e+001) (31, 2.02420998445735910000e+000) (32, 4.22969043077495230000e+000) (33, 9.65191206318825930000e+000) (34, 4.62323969502889480000e+000) (35, 8.28456774371159280000e+000) (36, 2.94993873905553260000e-002) (37, 5.63694599510754110000e+000) (38, 6.61967373030351160000e+000) (39, 3.44526184234178250000e+000) (40, 4.13302904935070980000e+000) (41, 1.27014848266014830000e+001) (42, 9.36153162803869420000e+000) (43, 1.29111776254983950000e+001) (44, 1.05347442053680350000e+001) (45, 2.31470762391976770000e+001) (46, 1.41137719666865970000e+001) (47, 3.41534851375370650000e+000) (48, 1.11840816662457130000e+000) (49, 1.40594323715478620000e+001) (50, 4.29422173406575690000e+000) (51, 1.42207708711348620000e+001) (52, 1.05160165897681390000e+001) (53, 4.40869268957638030000e+000) (54, 9.36377162274342110000e+000) (55, 4.06139819146548040000e+000) (56, 7.18869473050160930000e+000) (57, 6.27601553330974490000e+000) (58, 1.06617307312288410000e-001) (59, 1.50585997918972140000e+001) (60, 6.11188231006734210000e+000) (61, 6.01300739285245900000e+000) (62, 8.47779745870982640000e+000) (63, 7.18912146657339600000e+000) (64, 3.17846224684725800000e+001) (65, 7.32147928323905270000e+000) (66, 6.12468951728874170000e+000) (67, 2.02111132513629850000e+001) (68, 6.11499714639714310000e+000) (69, 6.11866535034708740000e+000) (70, 1.29194922643002010000e+001) (71, 1.28438104506833910000e+001) (72, -6.19498072369312760000e-001) (73, 9.90478471673562070000e-001) (74, -1.76098077787952680000e+000) (75, 1.51506835366017840000e+001) (76, 1.52515744812395960000e-001) (77, 6.08472980347196040000e+000) (78, 1.28522529793430460000e+001) (79, 3.26713414812050120000e+000) (80, 4.21409088603036960000e+000) (81, 1.43795102002921200000e+000) (82, 7.21703881612938950000e+000) (83, 1.52094542974954620000e+001) (84, 1.08735231704497780000e-001) (85, 1.30069556432062930000e+001) (86, 3.31235509315091650000e+000) (87, -2.62655509392452360000e-001) (88, 7.18933337497148630000e+000) (89, 1.22261050259830510000e+001) (90, 2.15804680929889440000e+001) (91, 1.53757302526415170000e+001) (92, 1.53622842047394300000e+001) (93, 1.66923205425674830000e+001) (94, 1.41320776982303220000e+001) (95, 1.70142700917781550000e-001) (96, 2.72453761676405470000e+001) (0, 1.61597984089891970000e+001) (1, 1.15149839646478790000e+001) (2, 1.52407301156470720000e+001) (3, 2.14852851137711980000e+001) (4, 1.95144524862648440000e+001) (5, 1.94914971654891820000e+001) (6, 1.69540152259458060000e+001) (7, 1.61707114904565790000e+001) (8, 1.29558166395247490000e+000) (9, 7.54404959195656930000e+000) (10, 1.20905872868713460000e+001) (11, 7.76609713305128850000e+000) (12, 6.78381285204314550000e+000) (13, 1.84130828308766890000e+001) (14, 1.26425464303936010000e+001) (15, 1.36012634913747980000e+000) (16, 9.64238170221845260000e+000) (17, 5.99482779701466840000e+000) (18, 1.33158630411449170000e+000) (19, 1.32578588308847640000e+001) (20, 1.28198303188502380000e+000) (21, 6.80416807665256050000e+000) (22, 1.25525195749249720000e+001) (23, -5.27456007424132230000e-001) (24, -6.15102488072941100000e-001) (25, 5.30320226497025790000e+000) (26, 1.26289123575506750000e+000) (27, 1.31950170354999430000e+001) (28, 1.31865906249107370000e+000) (29, 2.74170696125501830000e+001) (30, 1.69895670398857100000e+001) (31, -2.07893608194459920000e+000) (32, 2.58256055378898130000e+000) (33, 5.35347082561831210000e+000) (34, 4.17825164548029000000e+000) (35, 7.74774996657262170000e+000) (36, 1.24003967176495020000e+000) (37, 4.62077436459158620000e+000) (38, 2.10308682537186620000e+001) (39, -6.63350782813696300000e-001) (40, 2.41114941203535650000e+000) (41, 7.48528725646611730000e+000) (42, 8.12247856599121750000e+000) (43, 7.86590248352763590000e+000) (44, 1.13856741142889690000e+001) (45, 2.60896463036744420000e+001) (46, 1.10279125416188410000e+001) (47, -5.20070753517984040000e-001) (48, 7.85942160769314670000e-001) (49, 1.11221019917626870000e+001) (50, -7.27201512806052610000e-001) (51, 9.09211267040170060000e+000) (52, 1.26135250610553500000e+001) (53, 4.07591027748798940000e+000) (54, 8.12073906403808540000e+000) (55, 2.55139599704721130000e+000) (56, 1.50705997670758180000e+001) (57, 3.87207626508474910000e+000) (58, 1.37448792438335030000e+000) (59, 1.70043748822943110000e+001) (60, 2.34716552782946160000e+001) (61, 6.84460386766828060000e+000) (62, 5.51973039278672580000e+000) (63, 5.97812838290203930000e-001) (64, 2.30835897674574470000e+001) (65, 1.58112218366870730000e+001) (66, 6.86965879930896680000e+000) (67, 2.84948464481520920000e+001) (68, 6.84156431390679030000e+000) (69, 6.87922300531312380000e+000) (70, 4.56163391111186910000e+000) (71, 9.97695809256551410000e+000) (72, -3.69970070022702750000e+000) (73, 8.58995148226874170000e-001) (74, 1.14541344280251330000e+000) (75, 1.68524400574091790000e+001) (76, 1.42689881007502550000e+000) (77, 6.71193175150759290000e+000) (78, -4.31039079303578010000e+000) (79, -9.07895969896216930000e+000) (80, -3.87968222754088040000e-001) (81, 8.03366588112939160000e+001) (82, 1.95914179042081390000e+001) (83, 1.68756334205097080000e+001) (84, 1.42684386949370420000e+000) (85, 4.61711486814315820000e+000) (86, -9.06315159349341930000e+000) (87, -2.51698306534442430000e+000) (88, 8.57059031581738400000e+000) (89, -2.03413400622846580000e+001) (90, 2.15932318896255030000e+001) (91, 5.04521373315282330000e+000) (92, 5.07018321408471810000e+000) (93, 1.71495413294595560000e+001) (94, 1.53005135439485450000e+001) (95, 1.33868469576660340000e+000) (96, 2.70732203067595700000e+001) (0, 5.41250332038548000000e+000) (1, 1.87723231618810720000e+001) (2, 2.13958310416085520000e+001) (3, 2.27231188840481480000e+001) (4, 1.94661825290943360000e+001) (5, 1.95304342425492370000e+001) (6, 1.64254220099246600000e+001) (7, 5.34165370803001500000e+000) (8, -1.01901170001582080000e+000) (9, 8.30272918693258610000e+000) (10, 9.86164146198200160000e+000) (11, 8.41145706113213090000e+000) (12, 4.87328167493208840000e+000) (13, 1.54024541001418700000e+001) (14, 1.04981689413169620000e+001) (15, -9.61711892347802410000e-001) (16, 1.03381059545121160000e+001) (17, 1.67552031239231310000e+001) (18, -9.56523904066511780000e-001) (19, 1.48264763603279470000e+001) (20, -8.99993145327773520000e-001) (21, 4.96198406304006760000e+000) (22, 1.05224731375553570000e+001) (23, -1.74690014360410720000e+000) (24, -1.83600536970345350000e+000) (25, 5.60524166299089630000e-001) (26, -1.01091233031107230000e+000) (27, 1.48103569770524750000e+001) (28, -9.37993624668458810000e-001) (29, 1.18405689540447090000e+001) (30, 1.24632901259834870000e+001) (31, -1.09679042656080270000e+001) (32, 6.18796089804113730000e-003) (33, 4.08339106215242890000e-001) (34, 5.20104071872140490000e+000) (35, 8.43958816613780450000e+000) (36, -1.07490769908983810000e+000) (37, 3.39963077283515490000e-001) (38, 3.47119654958809410000e+000) (39, -1.75443798540098040000e+000) (40, 4.04470045323152770000e-002) (41, 1.49653367681763140000e+001) (42, 8.57913342699193220000e+000) (43, 1.36990622076578090000e+001) (44, 8.27026361100739390000e+000) (45, 1.95568197675014770000e+001) (46, 7.69978310188662980000e+000) (47, -1.76586377112130610000e+000) (48, -8.47782606362018960000e-001) (49, 7.73088051399603420000e+000) (50, -1.07053257433859720000e+001) (51, -2.24948235503838490000e+001) (52, -8.95532469856707540000e+000) (53, 1.05945621086291960000e+001) (54, 8.48244152799066060000e+000) (55, -6.32517333870551980000e-002) (56, 5.96693151652294150000e+000) (57, -3.52870749499421650000e+000) (58, -1.02702561528641430000e+000) (59, 1.57419987983200720000e+001) (60, 6.92579625340897300000e+000) (61, 4.98529950017818460000e+000) (62, 6.76553068133855980000e+000) (63, 4.71787658114475850000e+000) (64, 8.82145682418808260000e+000) (65, 6.29614098401119280000e+000) (66, 4.97649822617657560000e+000) (67, 2.34784405304163460000e+001) (68, 4.92354412610407890000e+000) (69, 5.05332318181894460000e+000) (70, 1.09071922750591220000e+001) (71, 1.08796914603554170000e+001) (72, 4.87404617698312490000e+001) (73, -8.18601699648923490000e-001) (74, 1.17272750008261340000e+000) (75, 1.56197209647989470000e+001) (76, -1.05112840370496290000e+000) (77, 4.93946819985982180000e+000) (78, 1.05050442094726280000e+001) (79, 2.69065840217658000000e+000) (80, 5.54464769623424300000e+000) (81, 1.45239574901172250000e+000) (82, 7.22614859591180640000e+000) (83, 1.56699651024436000000e+001) (84, -1.04919968680699750000e+000) (85, 1.08155113683463480000e+001) (86, 2.82478926751218130000e+000) (87, 1.81082115515440060000e+001) (88, 1.20694380958335450000e+001) (89, 2.63791120004363930000e+001) (90, 2.28011767431415680000e+001) (91, 1.58128190706323310000e+001) (92, 1.60048784012742940000e+001) (93, 2.01482936139156020000e+001) (94, 1.75589744166286610000e+001) (95, -9.29882058363246110000e-001) (96, 2.86781136052836030000e+001) (0, 1.87141913313254350000e+002) (1, -1.49145889090769260000e+003) (2, 1.96515294430466380000e+001) (3, 2.17858133890379580000e+001) (4, -7.63316695216847490000e+000) (5, -7.66513716626695540000e+000) (6, 3.06240354816530630000e+001) (7, 1.87125128645285600000e+002) (8, 1.45267378560204750000e+001) (9, 3.81106421186446910000e+001) (10, 1.72796425504182270000e+001) (11, 5.23506371402461000000e+001) (12, 6.02945209845032700000e+000) (13, 1.78001419766412330000e+000) (14, 1.01345540192312970000e+001) (15, 1.45412031880517250000e+001) (16, 8.65559117710126200000e+002) (17, 8.05159249003528290000e+000) (18, 1.45223250112433670000e+001) (19, 2.93064127715267450000e+001) (20, 1.45541182256241090000e+001) (21, 6.07233539774154000000e+000) (22, 1.01222066041417410000e+001) (23, 2.81154834484671220000e+000) (24, 2.67646533256351440000e+000) (25, 1.25529438233859060000e+001) (26, 1.44965315557022340000e+001) (27, 2.92422465087801340000e+001) (28, 1.45438948369522340000e+001) (29, 1.98943281643758850000e+001) (30, 1.59836114849386970000e+001) (31, 5.55599007379748500000e+000) (32, 1.07672798918528280000e+001) (33, 1.24046772248050930000e+001) (34, 2.24619914891519130000e+002) (35, 5.21801354387123060000e+001) (36, 1.44526655844350100000e+001) (37, 1.69011559304201170000e+002) (38, 4.44155490375786290000e+001) (39, 2.72145435219600040000e+000) (40, 1.07139961929959980000e+001) (41, -3.25777719261263770000e+002) (42, 1.10699914076201970000e+001) (43, 1.43647001612730460000e+001) (44, 8.36405625852443390000e+001) (45, 8.93484689005650100000e+001) (46, 1.91089934501096450000e+002) (47, 2.77421313529817940000e+000) (48, 2.69403181622327730000e+000) (49, 1.91085601005002700000e+002) (50, 1.08211064687117470000e+002) (51, 5.08101805767534420000e+002) (52, 9.60227126139624970000e+001) (53, 4.51674384740538940000e+000) (54, 1.11149437927475300000e+001) (55, 1.06734505431694730000e+001) (56, 5.46040265366705400000e+000) (57, 2.96901550199628660000e+001) (58, 1.46300764850278110000e+001) (59, 2.67938156285792810000e+001) (60, 5.56888866161771220000e+001) (61, 6.19143940313819920000e+000) (62, 9.44156588100517170000e+000) (63, 3.18461544249974570000e+000) (64, 3.19387557700859930000e+002) (65, 9.46687023359916150000e+000) (66, 6.05382953762144820000e+000) (67, 2.68166727798133490000e+001) (68, 6.09405781134108880000e+000) (69, 6.06527973516914190000e+000) (70, -1.66293134680556670000e+001) (71, 7.70559931339839020000e+000) (72, 7.16719874166177200000e+000) (73, 2.76004744718374170000e+000) (74, 8.25612174697089030000e-001) (75, 2.68322616824422480000e+001) (76, 1.45328596777220010000e+001) (77, 6.14638934834947830000e+000) (78, -1.04152969988108350000e+002) (79, 1.59725788876700460000e+000) (80, -6.62342186972291070000e+002) (81, -2.92213998595583440000e+000) (82, 6.82249246357328760000e+001) (83, 2.66530136251342390000e+001) (84, 1.46413985065121860000e+001) (85, -1.67019941350983990000e+001) (86, 1.44689778507008020000e+000) (87, 1.24127399399823220000e+002) (88, 2.46043750144039240000e+001) (89, -1.96923474899589620000e+001) (90, 2.18124064110865880000e+001) (91, 1.08360253681759370000e+001) (92, 1.08801110570649070000e+001) (93, -1.09833258436384740000e+001) (94, 3.38890618357858670000e+001) (95, 1.46224409810204710000e+001) (96, 2.28110480020946080000e+001) (97, 1.50000000000000000000e+003) (98, 1.47719039723968490000e+003) (99, 1.50000000000000000000e+003) (100, 1.43479999568462360000e+003) (101, 1.49868642322316190000e+003) (102, 1.41913179213024890000e+003) (103, 1.50000000000000000000e+003) (104, 1.47719039723968490000e+003) (105, 1.44859999995231650000e+003) (106, 1.50000000000000000000e+003) (107, 1.38779999651908860000e+003) (97, 1.30000000000000000000e+003) (98, 1.50000000000000000000e+003) (99, 1.45000000000000000000e+003) (100, 1.45679999485015860000e+003) (101, 1.45679999485015860000e+003) (102, 1.45679999485015860000e+003) (103, 1.50000000000000000000e+003) (104, 1.50000000000000000000e+003) (105, 1.50000000000000000000e+003) (106, 1.45000000000000000000e+003) (107, 1.50000000000000000000e+003) (97, 1.50000000000000000000e+003) (98, 1.49998566152564900000e+003) (99, 1.46070673443662490000e+003) (100, 1.39410861024368500000e+003) (101, 1.50000000000000000000e+003) (102, 1.49164115151180090000e+003) (103, 1.48960413841371790000e+003) (104, 1.50000000000000000000e+003) (105, 1.35419623145850120000e+003) (106, 1.27084925231699940000e+003) (107, 1.39244050844166800000e+003) (97, 1.50000000000000000000e+003) (98, 1.49792486014121500000e+003) (99, 1.49164115151180090000e+003) (100, 1.49769734005744430000e+003) (101, 1.50000000000000000000e+003) (102, 1.50000000000000000000e+003) (103, 1.39551885930206480000e+003) (104, 1.47500000000000000000e+003) (105, 1.47500000000000000000e+003) (106, 1.50000000000000000000e+003) (107, 1.50000000000000000000e+003) 
